34 128
34 0.038103506 -0.04530396 -0.013881856 0.010624115 0.017803974 -0.23680761 0.050391197 0.15607065 -0.055094175 0.0742683 0.22334269 0.032129716 -0.043741014 -0.072198234 0.20968153 -0.041622907 0.2516334 0.070598654 -0.120928004 0.020784466 0.051053043 0.131091 0.09680341 0.122476436 -0.028506285 0.0958402 -0.012026793 0.024785029 -0.027641628 -0.15266101 -0.30847582 -0.08010653 0.10406548 0.050809067 -0.2016976 0.11689072 0.23380002 -0.019158596 0.21007703 -0.03031417 -0.042073004 0.086699955 -0.045356285 -0.08167451 -0.03803562 0.025295136 -0.08279813 0.04600105 0.04468479 0.1106337 -0.046822205 0.010067253 0.2771875 0.12851581 0.13219154 0.05622716 0.014191599 -0.049698304 -0.0381978 0.13220496 0.06446129 0.04945994 -0.049058385 0.038845226 0.10733182 -0.05796123 0.061190177 0.066226795 -0.15112439 -0.15787959 0.20556818 -0.002407771 -0.013483107 -0.17920853 -0.040501382 -0.024420895 -0.05264334 -0.04183381 -0.11414526 0.17111222 0.019569142 -0.08911823 -0.0035582758 0.20950608 -0.06980973 0.015732706 0.15249225 -0.0946816 0.08404558 0.08219408 -0.06692929 -0.089700185 0.0130309155 0.002850457 0.11974582 0.068607666 -0.2290542 -0.19567455 0.14086811 -0.13260834 -0.15419458 -0.12583587 0.1587695 0.08120126 0.06595733 -0.13211255 0.080451995 0.03908372 0.07929567 -0.08691923 -0.04137543 0.08340487 0.07105993 0.09092995 -0.11791827 -0.05852038 -0.09829672 0.11892585 0.07183237 0.09090948 -0.1002307 -0.16671687 0.024470473 -0.018033428 -0.029687049 -0.16906138 0.090145 0.035336155
1 0.06600454 -0.106320776 0.06780767 -0.0006859423 -0.009021756 -0.20761706 0.04775203 0.1055005 0.0050148056 0.014874216 0.16052186 -0.0683684 0.0636296 -0.07818308 0.1997112 -0.14153701 0.10008567 0.11369419 -0.043322254 -0.07894073 0.10801609 0.056943994 -0.05715738 0.065693386 -0.102536485 0.07700603 0.010999445 0.07627521 0.16884397 -0.06269268 -0.3205965 0.09083738 0.10303784 0.016017057 -0.15002368 0.14207016 0.21402912 0.09570803 0.17708974 -0.095288195 0.02361518 0.16840047 -0.08446809 -0.012503232 -0.0009249587 -0.0011165534 -0.106420964 -0.14712898 0.11203769 0.10080608 0.079111084 -0.04675996 0.17143106 0.1504945 0.10970527 0.0034761268 -0.049048737 -0.037800908 -0.16814305 0.05921023 0.11960891 -0.020604467 0.021454437 -0.0034310778 0.075093366 -0.08128521 -0.04201208 0.046584044 -0.0010962482 -0.16210791 0.15278506 0.008918226 -0.16985503 -0.08713231 0.032378938 -0.04209962 -0.05120176 -0.08579601 -0.018969065 0.19949366 -0.019397598 -0.20556635 0.10647028 0.19280857 0.06660417 -0.008486826 0.23550263 -0.22645679 0.15813278 0.059103735 -0.123153344 0.024322646 -0.021108605 0.14319433 0.19327018 0.12764034 -0.22954929 -0.31173855 0.06412547 -0.11141995 -0.17090037 -0.024258731 0.13641624 -0.04281603 0.015549342 -0.08481003 0.018393261 -0.06802623 0.11104126 0.03649481 0.039158814 0.07275813 0.094494805 0.1264592 -0.08919245 -0.014695377 -0.054915503 0.13149782 0.07331091 0.15349968 -0.005357485 -0.101677835 0.030674297 0.026895689 0.011341381 -0.14958982 0.0703671 0.04841002
33 0.03603615 -0.047182433 -0.033023145 -0.0043240585 0.02934666 -0.24114701 0.053719617 0.15607329 -0.06514226 0.09481415 0.23908475 0.04218737 -0.04841528 -0.07016229 0.22870263 -0.03572652 0.25738415 0.06938547 -0.12000819 0.040862974 0.044516932 0.12792546 0.08956386 0.12740457 -0.026708733 0.083182074 -0.02118555 0.016548667 -0.033523813 -0.14951599 -0.3019419 -0.09322491 0.11413039 0.056477297 -0.21451183 0.12108923 0.2423 -0.016365448 0.22381948 -0.020947065 -0.028894046 0.08040841 -0.028630441 -0.09058642 -0.054478887 0.031958163 -0.086299054 0.044618174 0.048549324 0.103418365 -0.046880692 0.013617321 0.2852097 0.11434557 0.12492035 0.068974815 0.013205753 -0.050241504 -0.017878748 0.13507049 0.06938124 0.05152815 -0.06371399 0.04660923 0.10511151 -0.058327015 0.0677325 0.061571643 -0.16334414 -0.15062769 0.19470467 -0.011161618 0.008195697 -0.16945374 -0.047672827 -0.0329593 -0.06152088 -0.036574777 -0.11083972 0.1754447 0.02978352 -0.089052156 -0.025882073 0.20930654 -0.067690305 0.022724424 0.14505556 -0.08446425 0.093702376 0.0809373 -0.07325884 -0.099910796 0.006828776 3.1314557e-06 0.10809604 0.06332231 -0.2294037 -0.18829215 0.13632254 -0.14181519 -0.14819676 -0.13150778 0.15913081 0.079125285 0.055865116 -0.12110724 0.09441902 0.040833246 0.080117576 -0.096153766 -0.042672686 0.103321224 0.06951623 0.06360942 -0.10650182 -0.06901241 -0.105052955 0.106649324 0.063488536 0.07091291 -0.10816104 -0.15105478 0.0072387145 -0.0076740053 -0.0429215 -0.14724119 0.09180013 0.025644204
3 0.04254812 -0.0739308 0.02911679 0.0038378462 -0.0029880493 -0.22439589 0.0315099 0.11230835 -0.026637461 0.04647103 0.19019862 -0.011789756 0.0055303094 -0.08853033 0.18907203 -0.08502228 0.17785415 0.09367586 -0.08122661 -0.017904766 0.07117819 0.10829894 0.030018356 0.107881434 -0.060287543 0.098828375 -0.009151573 0.04360184 0.04646067 -0.11735995 -0.30289385 -0.016761435 0.09266357 0.045540955 -0.17006919 0.13657069 0.23140173 0.019916823 0.20615114 -0.04079924 -0.01731911 0.12300777 -0.05593468 -0.04421132 -0.02719405 0.017747566 -0.07928004 -0.040466174 0.07061292 0.09766346 0.020398717 -0.019785294 0.24993393 0.14823101 0.1253086 0.041391227 -0.017254272 -0.053450193 -0.11095098 0.11164715 0.109985955 0.013622068 -0.011221373 0.026039394 0.099125035 -0.071835235 0.020621905 0.04906711 -0.068457 -0.16092794 0.1730569 -0.020573378 -0.089896105 -0.13416895 -0.014495763 -0.03664593 -0.050812993 -0.05564596 -0.06395678 0.17730832 -0.0025116287 -0.120778926 0.050349023 0.1853965 -0.013340205 0.018621653 0.15824224 -0.13447782 0.103987806 0.07204939 -0.08328158 -0.02486385 -0.0014197521 0.07170258 0.15354645 0.08116276 -0.23342475 -0.24395256 0.10928953 -0.12357533 -0.16160753 -0.09018547 0.14792313 0.029225959 0.035666626 -0.107058324 0.047120474 -0.014898773 0.08746787 -0.041716896 -0.004934069 0.062205646 0.07992896 0.09206016 -0.08759053 -0.038673356 -0.073905066 0.096903875 0.053541947 0.08871292 -0.06208183 -0.12209356 0.00943054 0.0079258755 -0.022373771 -0.15850239 0.06367054 0.030900061
2 0.04911448 -0.09641536 0.029823102 -0.008147759 -0.002646707 -0.21395867 0.03702656 0.10838462 -0.02722565 0.03701558 0.17765857 -0.030968575 0.018485101 -0.08036346 0.20256062 -0.11127344 0.1491939 0.097591914 -0.058315624 -0.04187391 0.07636787 0.07092175 -0.010940107 0.10001663 -0.06716667 0.08109496 0.0035905438 0.04459021 0.09916616 -0.10039326 -0.30190235 0.02421285 0.10329184 0.029018883 -0.16020165 0.14148314 0.21607491 0.05232134 0.18442467 -0.06620532 0.010030896 0.1334575 -0.068338506 -0.026546316 -0.012759051 0.00097619044 -0.09622004 -0.08477408 0.09598882 0.102123946 0.041327007 -0.031177096 0.22117926 0.14153051 0.11034714 0.03148878 -0.037414487 -0.049151566 -0.11984894 0.09757211 0.11489241 0.011949128 -0.0019089761 0.022235228 0.074804686 -0.06610625 -0.0038752025 0.045110963 -0.04387771 -0.15858407 0.16606417 -0.015358839 -0.106241256 -0.114638425 0.0013925406 -0.02959053 -0.058848158 -0.06592795 -0.038228445 0.18592712 -0.009715507 -0.15907036 0.07075042 0.18998818 0.015133193 0.0018130029 0.1869758 -0.17113839 0.13093615 0.057542678 -0.100911245 -0.008933115 -0.004701052 0.09913696 0.16429079 0.10711461 -0.22570989 -0.2561924 0.08921921 -0.11832657 -0.15369408 -0.056036666 0.12907445 -0.00015469154 0.03692163 -0.08772805 0.04184273 -0.035885833 0.096618064 -0.011846876 0.0146114165 0.076138474 0.08605135 0.094743334 -0.088583134 -0.04134736 -0.0645729 0.10233839 0.06223117 0.121023245 -0.035701107 -0.108657084 0.0073304754 0.016433429 -0.011938169 -0.1420322 0.06789535 0.03467366
32 0.05751511 -0.07916803 0.010357637 -0.004020996 0.025867574 -0.23387788 0.039353132 0.13341823 -0.04345829 0.066171445 0.21362276 -0.015249563 -0.006765647 -0.08086846 0.2194553 -0.08600808 0.20429267 0.076547906 -0.094572976 -0.005359827 0.066619165 0.10057897 0.050240543 0.115731485 -0.051396787 0.09107199 -0.010365465 0.025124848 0.026560387 -0.12947293 -0.31404194 -0.021668514 0.11329517 0.055010114 -0.19076756 0.12417746 0.23827434 0.029998315 0.20427684 -0.04499068 -0.012187445 0.105463706 -0.06378531 -0.05640194 -0.03689785 0.013125745 -0.084580734 -0.020092677 0.063396655 0.112540126 -0.014327332 -0.0013508842 0.25563392 0.13789181 0.109242246 0.047892958 -0.0048385686 -0.045288015 -0.08234201 0.12271455 0.09428993 0.031266954 -0.012181065 0.03164031 0.09573991 -0.069097914 0.032349963 0.046141405 -0.10115706 -0.16345762 0.18519253 -0.006552581 -0.050653197 -0.14642309 -0.025646439 -0.032271672 -0.057954963 -0.05213548 -0.09519865 0.1795191 0.0070284954 -0.118226856 0.023940893 0.19577225 -0.030240895 0.019456627 0.16396216 -0.12842317 0.0968276 0.07750913 -0.0929957 -0.056190956 -0.0004433242 0.04597327 0.13290127 0.08488296 -0.22871092 -0.2222284 0.10768138 -0.13139555 -0.14556101 -0.107200325 0.13897775 0.043025706 0.04943401 -0.11899654 0.055469036 0.008444045 0.09968132 -0.046099346 -0.027759353 0.08097654 0.087235294 0.077781335 -0.11821895 -0.04973371 -0.0917197 0.11121706 0.06399869 0.10970683 -0.067749254 -0.14478317 0.011872604 0.0063388157 -0.019117234 -0.140496 0.06899822 0.050729237
4 0.053551737 -0.09848965 0.055737738 -0.0021254504 -0.007967834 -0.21050186 0.034632947 0.10298954 0.0010564562 0.019936582 0.16350406 -0.05306421 0.026644733 -0.079367116 0.18489933 -0.11254142 0.1336861 0.10256009 -0.05068485 -0.046281546 0.09785257 0.07668117 -0.026112279 0.08363914 -0.093476444 0.09100713 0.0015221203 0.058282122 0.11827268 -0.094454944 -0.31185195 0.041374367 0.088083364 0.0322117 -0.1477853 0.15518588 0.23001026 0.064257644 0.1969653 -0.07654874 -0.0019464977 0.15611693 -0.06882493 -0.027682986 -0.0011886604 0.0023935586 -0.08578103 -0.10647681 0.08923621 0.09784285 0.052058563 -0.03791966 0.21497233 0.1583103 0.13223588 0.01670443 -0.03644256 -0.03839017 -0.1517676 0.07560847 0.11728395 -0.011873478 0.012546527 0.007987526 0.09311108 -0.06634657 -0.016485557 0.049547043 -0.031729396 -0.15733325 0.17178108 -0.012647597 -0.14448139 -0.10213661 0.015592235 -0.038425457 -0.056523237 -0.07643611 -0.033279788 0.19549096 -0.010931054 -0.17840597 0.08787759 0.19142859 0.03217643 -0.0036690265 0.20898595 -0.19524968 0.13875042 0.06382227 -0.10241807 0.003349253 -0.01582038 0.11261718 0.19685966 0.11501255 -0.24797724 -0.28978008 0.07912021 -0.11466221 -0.17521328 -0.04606795 0.133163 -0.009664402 0.034587987 -0.08443689 0.02251732 -0.05336317 0.09452315 -0.0043262234 0.013493938 0.06575296 0.08615683 0.10698576 -0.08136822 -0.024829535 -0.05576408 0.115413055 0.06387278 0.1259998 -0.024318177 -0.105104014 0.013850538 0.020654643 0.003182107 -0.15831067 0.08208517 0.049871393
14 0.056023236 -0.078508645 0.03435349 -0.00453332 -0.0040303916 -0.22715864 0.03430881 0.12575656 -0.023669109 0.038322758 0.18001801 -0.026960056 0.017803412 -0.080844335 0.21076281 -0.10481325 0.15665111 0.096519455 -0.07230163 -0.025127579 0.081454575 0.07692631 0.004702338 0.090252504 -0.0706237 0.08620151 -0.005651528 0.04464523 0.089669004 -0.10363021 -0.3104217 0.024575137 0.10288393 0.02973529 -0.16589989 0.1415574 0.23222332 0.057235364 0.18937762 -0.057934273 -0.0006752228 0.1382518 -0.061331432 -0.033722553 -0.019756816 0.016138135 -0.09937082 -0.07469892 0.08560396 0.10417407 0.02700985 -0.018896598 0.22692463 0.14781427 0.11466271 0.040812746 -0.031948883 -0.036077008 -0.11533407 0.09099794 0.10070378 0.009084875 -0.0034071286 0.01876897 0.08759853 -0.064327694 0.007166617 0.042249605 -0.060694225 -0.16423069 0.16311966 -0.013729708 -0.10285904 -0.12185826 0.0029852092 -0.03185799 -0.060377393 -0.07031082 -0.053575143 0.18084447 -0.0009476121 -0.15223557 0.0659948 0.18652856 0.012281474 0.0031014464 0.1831023 -0.15573296 0.12406057 0.059004277 -0.10786597 -0.018485243 -0.003495115 0.095303856 0.1552671 0.109527595 -0.22323644 -0.2483005 0.09877632 -0.12650745 -0.16483581 -0.064727545 0.14723669 0.011187243 0.03691928 -0.09748281 0.05040213 -0.033224482 0.089106604 -0.02144628 0.0031010036 0.07957739 0.07989212 0.08912858 -0.08268098 -0.03747177 -0.062070955 0.099280864 0.06410881 0.11608681 -0.037958756 -0.11731069 0.01750156 0.006970145 -0.009429088 -0.14415823 0.07725782 0.033361427
24 0.032684565 -0.04832379 -0.00858325 -0.002880437 0.027098743 -0.22809052 0.038644228 0.13951497 -0.037760884 0.07939783 0.21524023 0.022159774 -0.018628387 -0.083457194 0.20273641 -0.05213841 0.23111717 0.07630358 -0.101140566 0.024969408 0.042722914 0.1126641 0.06924723 0.120216556 -0.04007633 0.09469057 -0.010625571 0.023724653 -0.005483104 -0.13763383 -0.29277882 -0.05894461 0.091910146 0.053535316 -0.18752486 0.12549245 0.21887067 -0.0011020035 0.20658529 -0.033911053 -0.032425754 0.09355183 -0.049000338 -0.07195121 -0.029550465 0.022132507 -0.075253874 0.022996552 0.048652664 0.11184907 -0.026457094 0.0122708 0.27531904 0.12352294 0.11939797 0.059755534 0.005116049 -0.03506491 -0.046816092 0.12503079 0.06784363 0.04774949 -0.036659487 0.038794473 0.11044327 -0.058031797 0.053853545 0.04994454 -0.11935499 -0.15020233 0.18467043 -0.011439371 -0.022287555 -0.15963332 -0.036224574 -0.033295635 -0.04774489 -0.0322787 -0.0990595 0.18411815 0.011719636 -0.097407356 0.00017324358 0.19568104 -0.049266506 0.015787017 0.14661117 -0.10091055 0.085691266 0.07084402 -0.071224 -0.080353275 0.0037913863 0.016079407 0.11245859 0.06280261 -0.22314887 -0.204375 0.13183482 -0.13668558 -0.15699399 -0.12334896 0.13884915 0.06725512 0.05519367 -0.116024315 0.06271196 0.014399 0.08081871 -0.06739782 -0.029719407 0.08290019 0.074808545 0.080922395 -0.12102156 -0.06685796 -0.099993706 0.10198133 0.064541616 0.09812101 -0.09223861 -0.15232587 0.018476816 -0.008727568 -0.032917954 -0.15398254 0.08369275 0.030258758
30 0.04148016 -0.0457472 -0.03103623 0.0060024597 0.022756571 -0.2252687 0.042744093 0.13813977 -0.05162441 0.08338401 0.22062309 0.017383568 -0.025905978 -0.07159602 0.22326449 -0.041346923 0.2194608 0.07253297 -0.10420021 0.032705367 0.041328855 0.123197496 0.07377542 0.12187846 -0.036573112 0.087853834 -0.014467398 0.009331948 -0.02220076 -0.123123325 -0.286995 -0.069488704 0.10896689 0.051847238 -0.2026023 0.11182043 0.23022692 0.0058472906 0.20645832 -0.03417305 -0.035775214 0.08371505 -0.030228525 -0.07629168 -0.051490273 0.02223425 -0.09156032 0.022481443 0.055100404 0.113863 -0.02424088 -0.00070230465 0.29508826 0.13995452 0.113575704 0.0656755 0.0070047677 -0.0519277 -0.057246752 0.13119593 0.07376545 0.046166304 -0.048199996 0.025964597 0.10882522 -0.06509611 0.051787443 0.052464347 -0.13758478 -0.15890034 0.18674123 -0.00791997 -0.017224355 -0.15115331 -0.046881214 -0.026861027 -0.06259673 -0.03196314 -0.11432002 0.18039702 0.017168047 -0.096667744 -0.00844671 0.19929759 -0.059740465 0.011828738 0.15819958 -0.10355511 0.09811597 0.0824216 -0.08692361 -0.08672396 -0.0019105043 0.019048212 0.12938724 0.07357791 -0.24142745 -0.2055966 0.14241013 -0.15752245 -0.16022849 -0.1467228 0.16301641 0.06566756 0.047154684 -0.12837219 0.09250713 0.041893013 0.08122011 -0.08265117 -0.025757961 0.102324 0.07692362 0.07725773 -0.10417053 -0.065718345 -0.10407608 0.099461615 0.06663002 0.08875223 -0.08885701 -0.1524888 0.0103538 -0.0068754256 -0.024874682 -0.15990146 0.077981874 0.030348267
9 0.03693958 -0.057034224 -0.0017729531 0.015454846 0.0090745315 -0.21245703 0.050591964 0.12461589 -0.0397416 0.059847455 0.19671208 -0.006454607 0.0024528846 -0.07655491 0.2047411 -0.066098325 0.19024935 0.08327367 -0.08264027 0.006462554 0.051351193 0.1076231 0.029711021 0.09649071 -0.05581436 0.07118714 -0.0136606265 0.02236998 0.020513244 -0.107747555 -0.28758422 -0.022037633 0.09503998 0.034259174 -0.16763246 0.12333809 0.2156275 0.02737089 0.1858129 -0.049973357 -0.016488649 0.10131072 -0.041009564 -0.050045498 -0.026142875 0.021653306 -0.09608076 -0.023228731 0.069254786 0.118132845 0.0014618393 -0.0024078295 0.2604201 0.13295677 0.11820135 0.038577776 -0.016118534 -0.038912654 -0.08125172 0.11078641 0.08416556 0.02556733 -0.024597522 0.021916771 0.0910029 -0.07177935 0.019778222 0.055112418 -0.09610182 -0.1529878 0.1734339 -0.004663281 -0.061591797 -0.13360658 -0.018632513 -0.032129362 -0.05276256 -0.052780654 -0.08469811 0.18141663 0.012857954 -0.11748444 0.031014612 0.20285496 -0.018304374 0.0074506295 0.17950965 -0.12745239 0.11651513 0.06947507 -0.09093933 -0.057748813 -0.008902025 0.05743012 0.14576158 0.09746885 -0.23629235 -0.22989522 0.119382046 -0.14640841 -0.16111448 -0.11403916 0.15819646 0.042058803 0.04364319 -0.112770356 0.07665038 0.016862154 0.088288166 -0.05475058 -0.007143903 0.09830304 0.08328541 0.089560404 -0.10386507 -0.05528902 -0.075742416 0.1042053 0.05917099 0.11000493 -0.0581368 -0.12660189 0.0195816 -0.005205014 -0.006673076 -0.15151715 0.08700618 0.04167508
6 0.08810606 -0.14372596 0.07675778 0.0012222196 -0.007847647 -0.19814591 0.051882125 0.101229444 0.014162963 0.00035613423 0.15032363 -0.12482644 0.105698384 -0.05453232 0.2204042 -0.17585568 0.053222872 0.12021476 -0.03954632 -0.10531897 0.13149749 0.03461306 -0.12632471 0.06499764 -0.12756543 0.04682025 0.015024803 0.07309445 0.21712136 -0.02815372 -0.33449587 0.14517727 0.14162035 -0.0002627702 -0.13855655 0.14594598 0.21438354 0.14285651 0.15496099 -0.118749 0.036176085 0.1809465 -0.084860854 0.014537115 -0.012103451 -0.025002198 -0.1316823 -0.20050289 0.1691549 0.119250774 0.103278145 -0.044336464 0.15211521 0.14811812 0.08126627 0.000550497 -0.06372933 -0.027259076 -0.21052657 0.060664933 0.13275576 -0.04124942 0.031015804 -0.034811478 0.07300823 -0.086371236 -0.08275459 0.035049956 0.03369937 -0.16165213 0.15605383 0.017921489 -0.21675614 -0.0604838 0.06885419 -0.066775575 -0.06275124 -0.11661681 0.007878677 0.23005404 -0.015936721 -0.26721433 0.14023994 0.21020634 0.09699276 -0.004315479 0.26762405 -0.2706996 0.17856991 0.051597726 -0.14094734 0.067716256 -0.027681805 0.20196448 0.22068983 0.17060302 -0.2454554 -0.34250957 0.014798484 -0.117326744 -0.17447752 -0.003027163 0.1157004 -0.07912415 -0.006271895 -0.063741654 0.017059268 -0.08423017 0.12091555 0.07803777 0.06933467 0.086354405 0.11284683 0.13785554 -0.083802246 -0.021161491 -0.054336753 0.13712426 0.06770557 0.17860584 0.030627102 -0.089206174 0.03519753 0.037507057 0.040439654 -0.10621319 0.0703364 0.07359539
28 0.049182326 -0.061872635 -0.016091382 0.010004926 0.03038115 -0.2347374 0.037392642 0.1439674 -0.04314786 0.08000874 0.20284213 0.0024191835 -0.011041446 -0.08793745 0.2058815 -0.058298204 0.22693871 0.08233754 -0.09458796 0.02153492 0.059622537 0.111312844 0.071879975 0.12299184 -0.03408793 0.08363572 -0.010634515 0.021714877 0.010802506 -0.13595754 -0.29290152 -0.04419854 0.10526865 0.05897237 -0.19943552 0.11736792 0.22754279 0.0056837327 0.20660858 -0.030235149 -0.022633847 0.0868898 -0.043828923 -0.0673024 -0.044390336 0.023193976 -0.08272456 0.013156544 0.05022969 0.11217584 -0.030987877 -0.0032639387 0.27732232 0.14231186 0.11292999 0.054788683 -0.0065917047 -0.05134876 -0.06516166 0.124811046 0.08668998 0.050251298 -0.023956593 0.034246884 0.107481 -0.07605897 0.04498496 0.050085165 -0.10863711 -0.15586215 0.18444952 -0.0036014994 -0.032383144 -0.15054493 -0.040815663 -0.036247846 -0.06578704 -0.036061354 -0.107083715 0.18772262 0.0016101543 -0.102814704 0.0039456775 0.19029905 -0.033103637 0.025325507 0.1554992 -0.11193113 0.09333289 0.08060561 -0.07643381 -0.08087227 0.0018281294 0.032781463 0.12425857 0.07364707 -0.22268414 -0.21374898 0.13033383 -0.13176292 -0.15001698 -0.122286275 0.14089306 0.046613965 0.04468549 -0.12540978 0.0618173 0.027509656 0.091447935 -0.06083263 -0.03579051 0.080072515 0.084257476 0.08297852 -0.11786969 -0.06813838 -0.08954762 0.10744291 0.06340214 0.09396134 -0.092450194 -0.15688394 0.00491501 -0.006503551 -0.025397567 -0.1513704 0.08076029 0.042024102
7 0.07691232 -0.1160536 0.039712783 0.017419172 0.014838977 -0.19772238 0.06279175 0.118387595 -0.007444018 0.018592546 0.16781199 -0.10201268 0.079489134 -0.06694355 0.23285097 -0.14808695 0.100928746 0.09734688 -0.06729826 -0.079284534 0.1076147 0.054799117 -0.08156187 0.07384943 -0.113257386 0.05144223 0.017124863 0.069120415 0.16753589 -0.050787892 -0.33627722 0.10362354 0.12837815 0.008532805 -0.16394934 0.1348965 0.21321791 0.115928896 0.16708072 -0.10499827 0.025549931 0.14637251 -0.06919581 -0.006953607 -0.030027451 -0.014414813 -0.123986065 -0.14904554 0.14626889 0.118723646 0.074166484 -0.04299787 0.18447955 0.14852345 0.0870154 0.00049304264 -0.0446344 -0.03689516 -0.17874566 0.073286794 0.11237186 -0.020500164 0.015995502 -0.027258918 0.0772143 -0.08422206 -0.05274364 0.05231449 -0.023309514 -0.16711497 0.17586388 0.022572007 -0.17566846 -0.082445666 0.04888577 -0.057696458 -0.06531054 -0.117276296 -0.023849472 0.22798464 -0.0021298039 -0.23482148 0.09897809 0.2081351 0.06243858 -0.0021954987 0.24782227 -0.22258224 0.16431403 0.04496925 -0.11493786 0.026317159 -0.010221394 0.16171047 0.1932214 0.14997758 -0.23948361 -0.31048614 0.03667945 -0.12821798 -0.16197644 -0.03942012 0.12841302 -0.039940983 0.014736471 -0.09255604 0.04366122 -0.054396596 0.123757355 0.04747118 0.046557296 0.095052905 0.1185918 0.13009994 -0.085947186 -0.02904679 -0.06719457 0.14750099 0.07628418 0.15890093 0.009878643 -0.100468725 0.047081795 0.031834204 0.035035074 -0.120039955 0.09208928 0.06981509
8 0.069860056 -0.1033872 0.047316816 0.0092854565 -0.00055574835 -0.21962175 0.046579875 0.10831508 -0.006095319 0.024330245 0.16861519 -0.05075579 0.041196045 -0.0797329 0.215037 -0.11012388 0.13777865 0.09933966 -0.06818227 -0.050227355 0.097834766 0.08700384 -0.019593524 0.09440685 -0.08628759 0.088727504 0.009589525 0.060615428 0.12412911 -0.10039653 -0.3291669 0.042284776 0.1198707 0.02659044 -0.17627436 0.15154824 0.23940545 0.067523085 0.20202985 -0.07572834 0.0003449892 0.14871411 -0.070660844 -0.030428521 -0.01614666 0.010178252 -0.097017236 -0.11014141 0.09938343 0.103647225 0.05348533 -0.024925742 0.21372545 0.15187953 0.10601156 0.0269691 -0.03135603 -0.041172035 -0.14719781 0.07992654 0.110667504 -0.001702248 0.009999929 0.020755434 0.087950334 -0.07622389 -0.0062443297 0.0494275 -0.039554566 -0.16282733 0.18695484 0.007845656 -0.14093323 -0.10617035 0.020829493 -0.033160295 -0.06808657 -0.076907165 -0.041562025 0.20614465 0.001321579 -0.17606296 0.08615294 0.18954833 0.028329322 0.007108187 0.19431908 -0.19373924 0.12697089 0.058954112 -0.10746735 0.006122315 -0.0021703038 0.112162925 0.1776514 0.11892152 -0.23262909 -0.28405714 0.08500313 -0.12548284 -0.15586495 -0.04673298 0.1363391 -0.010333299 0.026530078 -0.09204367 0.040053785 -0.03592372 0.10809953 0.008256698 0.01924234 0.07939301 0.08577719 0.1145963 -0.084475964 -0.039151244 -0.06390412 0.11457359 0.06815602 0.1371444 -0.017795281 -0.11189483 0.022070635 0.020707497 0.010577236 -0.14841893 0.07134622 0.04434413
29 0.038935404 -0.052951027 -0.015526453 0.0028101073 0.013196844 -0.22128473 0.039932866 0.12759337 -0.036898866 0.07790095 0.20379633 0.0064347507 -0.011868428 -0.07932254 0.19723092 -0.048440326 0.20828289 0.072633214 -0.09709545 0.008934573 0.053194053 0.12328406 0.06839079 0.11867001 -0.03782711 0.088097245 -0.010958905 0.015753506 0.0054784324 -0.12634721 -0.29563996 -0.055430494 0.093476824 0.047326002 -0.18637185 0.12787585 0.22766462 0.006886287 0.2080961 -0.036345236 -0.02677393 0.08498085 -0.04291169 -0.06892911 -0.03808003 0.02895681 -0.087852865 0.005519837 0.050302632 0.10421872 -0.023705954 0.0034608848 0.27195886 0.13145112 0.11341661 0.052671187 0.0028404824 -0.040546034 -0.06517006 0.116106905 0.07630102 0.03822186 -0.030348402 0.031187719 0.112617366 -0.06912067 0.04246115 0.04963943 -0.11928295 -0.16399951 0.18666644 -0.009555075 -0.044182952 -0.14420162 -0.041424226 -0.040347606 -0.064634524 -0.036892295 -0.09556308 0.18675861 0.014104931 -0.101868026 0.005725754 0.20445858 -0.037803557 0.020654332 0.15538798 -0.11252428 0.100265004 0.07658844 -0.07785467 -0.069422975 0.007864408 0.035267964 0.13141085 0.07245166 -0.22812603 -0.20615776 0.12130443 -0.1358667 -0.15189488 -0.11648295 0.14253207 0.061794702 0.046603058 -0.123677135 0.069231994 0.022109892 0.077540204 -0.06689032 -0.027036753 0.07616778 0.07326171 0.08191425 -0.10724306 -0.053251486 -0.08432193 0.10526513 0.059889294 0.08743334 -0.08068735 -0.14382581 0.006219695 0.00040858495 -0.02626792 -0.1584965 0.07195341 0.029961767
31 0.05839103 -0.07924645 0.027141366 0.0017235907 0.01185135 -0.21618977 0.043519985 0.13098127 -0.02403278 0.041752584 0.1789678 -0.041015845 0.02452183 -0.06296234 0.21643561 -0.107043475 0.15532175 0.09586241 -0.08287527 -0.033202786 0.084505446 0.08084477 0.0030136027 0.094247706 -0.07795618 0.0730404 0.0060147145 0.05230534 0.074465185 -0.092481844 -0.31360117 0.015104058 0.106579825 0.033043273 -0.17228654 0.12035365 0.20827183 0.059213724 0.18413916 -0.06724779 -0.007332565 0.12754364 -0.067892745 -0.032388505 -0.027696077 0.013556386 -0.09038657 -0.06361106 0.0922226 0.10540695 0.011011681 -0.017084017 0.21690632 0.14029044 0.11012415 0.03641915 -0.03054565 -0.033802018 -0.11481818 0.09912456 0.09372991 0.017612625 -0.004584985 0.0138356825 0.097415976 -0.071880214 -0.008268422 0.04492799 -0.060906865 -0.16135061 0.17076504 0.005205746 -0.09869492 -0.12686941 0.0022612077 -0.038651392 -0.055089038 -0.067759685 -0.06736876 0.19425637 0.008303858 -0.15898557 0.06339848 0.20279193 0.008099688 0.0003702048 0.20239566 -0.17699306 0.12393554 0.0553261 -0.1033749 -0.030715086 -0.010589182 0.09345062 0.16377586 0.10872356 -0.23832855 -0.25952506 0.086793356 -0.13133974 -0.16786075 -0.08054255 0.14704286 0.017627452 0.023502331 -0.10068878 0.047901053 -0.023887873 0.103229165 -0.014859706 -0.001770258 0.08028179 0.09098995 0.11131818 -0.110511206 -0.034490295 -0.07905453 0.11992074 0.0756724 0.12791172 -0.047162835 -0.123848885 0.031071901 0.016766269 -0.0015639918 -0.14482532 0.08202974 0.044978745
20 0.054743066 -0.08598676 0.03704342 0.007072911 -0.007858472 -0.21493153 0.04920441 0.113656916 -0.023267137 0.040856898 0.18073896 -0.047216397 0.030904748 -0.0674928 0.21466434 -0.11781803 0.1404041 0.0954258 -0.07072253 -0.044194818 0.078795865 0.08648056 -0.024540136 0.094316036 -0.08014861 0.07883496 0.0014673304 0.0573336 0.09701131 -0.08851835 -0.30741423 0.034599725 0.10552082 0.021253087 -0.16864254 0.13120656 0.22754233 0.06513136 0.1934028 -0.066699155 -3.5754783e-05 0.14091027 -0.059552707 -0.028367577 -0.021111758 0.01081819 -0.110325 -0.080708794 0.10412383 0.107374586 0.03354724 -0.020383801 0.21340388 0.13676035 0.099710606 0.031575114 -0.04040365 -0.041068405 -0.12613082 0.09904493 0.110069275 -0.0032560427 -0.009177887 0.015824322 0.09314711 -0.07481013 -0.022349881 0.03782019 -0.04748133 -0.16272944 0.16028145 -0.0059533147 -0.121040046 -0.11095242 0.017000703 -0.04799472 -0.059440635 -0.066663 -0.04168101 0.19483165 -0.0064148786 -0.17059004 0.068801925 0.1942125 0.013273751 0.0029539375 0.20343338 -0.17300394 0.13984504 0.064208865 -0.11101982 -0.008276932 -0.013060266 0.113732636 0.16823308 0.11350575 -0.22707482 -0.26237345 0.06915948 -0.11284822 -0.16525671 -0.062187884 0.13650793 0.0049592215 0.017785896 -0.0861079 0.047846906 -0.037511643 0.09272767 -0.00023956614 0.021785162 0.0753522 0.088578865 0.09612594 -0.081713825 -0.027435606 -0.06687277 0.10433025 0.057489127 0.10522555 -0.028327318 -0.10324136 0.019176312 0.024827939 -0.0040113977 -0.13322267 0.070755206 0.031510442
25 0.031644534 -0.052746665 -0.020173116 0.0002562573 0.029763311 -0.23076199 0.036295947 0.13982387 -0.047094963 0.08242494 0.21747647 0.014691668 -0.0019956152 -0.0873823 0.21586387 -0.057420127 0.22355276 0.074198276 -0.08910743 0.011579321 0.04008875 0.11536193 0.05999751 0.11670912 -0.028766233 0.07795661 0.0020467883 0.02187343 -0.009680008 -0.1296896 -0.2818735 -0.05826576 0.10416803 0.05701125 -0.19632277 0.119329594 0.22116013 0.016500847 0.19929156 -0.04450118 -0.018703958 0.07192422 -0.043700546 -0.060993206 -0.04061065 0.024916165 -0.07548221 0.01642992 0.060477998 0.11497753 -0.035466667 0.01217163 0.26548022 0.13547686 0.11278982 0.049310144 -0.0058259745 -0.040586364 -0.054864805 0.12995124 0.07366927 0.04953465 -0.02736716 0.016338846 0.11031776 -0.058064524 0.038130976 0.047171086 -0.1204702 -0.15702792 0.18633999 -0.012118443 -0.020882798 -0.14578933 -0.039843995 -0.032122776 -0.05894418 -0.04503571 -0.09788359 0.18358432 0.00875113 -0.09839798 -0.007000521 0.20263137 -0.048701715 0.026040144 0.15522091 -0.115017116 0.08808878 0.060364906 -0.08492548 -0.07228457 0.013090604 0.034629505 0.11515207 0.082960315 -0.2202848 -0.197117 0.12264906 -0.13682875 -0.15929838 -0.12741867 0.15050313 0.06302109 0.03956728 -0.12536786 0.06930985 0.022409271 0.08132234 -0.05918309 -0.036764074 0.0892562 0.079265095 0.083743066 -0.12553947 -0.066669695 -0.09949684 0.10227028 0.05256599 0.09238896 -0.09513651 -0.15219714 0.01654285 -0.013000481 -0.027391879 -0.15108664 0.08850944 0.046212457
26 0.046926968 -0.05710154 -0.008808478 -0.0040246844 0.035182323 -0.25124487 0.05100246 0.14820355 -0.051232744 0.076832764 0.22885844 0.00274762 -0.004202341 -0.08857836 0.23270383 -0.06271174 0.23857102 0.077722415 -0.09226195 0.02385921 0.05829936 0.11692857 0.06754163 0.13255313 -0.032610614 0.09628337 -0.0006598476 0.032877423 0.01666132 -0.13777363 -0.31015572 -0.049074292 0.10810261 0.05600557 -0.20726056 0.115097046 0.22857949 0.020769805 0.20408204 -0.046041187 -0.015071523 0.0927412 -0.041781195 -0.06124005 -0.037385426 0.028088495 -0.0836508 0.009283106 0.07031534 0.115411565 -0.029203596 0.008391047 0.27983353 0.1368417 0.113164596 0.058860697 0.0014688624 -0.038027067 -0.060242735 0.11778178 0.08173 0.045502096 -0.026984908 0.021346137 0.118227415 -0.074546546 0.047652196 0.040866364 -0.10904034 -0.15898852 0.19747646 -0.012223904 -0.034692783 -0.15583977 -0.04278861 -0.029061638 -0.059816837 -0.042611863 -0.108326904 0.20226137 0.010961543 -0.110236645 -0.00496749 0.20759514 -0.03402279 0.026781913 0.15510033 -0.12587908 0.09193835 0.07179464 -0.09030999 -0.082680695 0.0041366816 0.03562433 0.11545952 0.07701361 -0.23019621 -0.20847823 0.1284915 -0.13832061 -0.16406435 -0.12723826 0.1496107 0.06170515 0.051131707 -0.12329942 0.070928 0.013099132 0.08849208 -0.06538695 -0.025300624 0.087550715 0.07985142 0.07537473 -0.12330143 -0.07310105 -0.09935507 0.10841151 0.06423145 0.09697672 -0.09938679 -0.15596138 0.01123729 -0.009505827 -0.03482161 -0.15974186 0.076819256 0.03969675
11 0.07981637 -0.121383235 0.05789211 0.013120424 0.0056377733 -0.19348463 0.059927907 0.09375585 -0.0071473676 0.0077561755 0.14977483 -0.0966864 0.06423889 -0.065356374 0.21585028 -0.14502758 0.080468744 0.11070255 -0.04816406 -0.07223589 0.11982997 0.05679097 -0.081331395 0.07316643 -0.115512535 0.060888875 0.013479725 0.078477554 0.16816328 -0.05394811 -0.32793063 0.0989226 0.13219942 0.003347305 -0.14577684 0.12840714 0.19859862 0.113590464 0.157664 -0.090556614 0.013315631 0.15555754 -0.08390224 -0.0015008147 -0.010827925 -0.0042750854 -0.106158935 -0.1553818 0.12062969 0.118387826 0.074730635 -0.033241503 0.1746533 0.14566395 0.07919177 0.003849387 -0.048028745 -0.039521612 -0.17553563 0.060549904 0.12468298 -0.024842411 0.029523518 -0.016850563 0.062024616 -0.08585818 -0.054420188 0.05110363 -0.0055785417 -0.14950925 0.16127798 0.015733354 -0.17205264 -0.07241864 0.048001926 -0.043976497 -0.07686529 -0.1002863 -0.01884063 0.2106004 -0.0018707013 -0.22460952 0.10814098 0.19247104 0.068480976 -0.009277999 0.23537375 -0.23360586 0.16035475 0.046105776 -0.119164385 0.037949435 -0.016071446 0.16116081 0.18991616 0.14679384 -0.23158042 -0.31547508 0.03963455 -0.13227434 -0.16452236 -0.03191535 0.1243203 -0.053808883 0.0006383264 -0.07784051 0.03894592 -0.05926051 0.11037294 0.044622842 0.043155335 0.08104659 0.10345382 0.120982274 -0.07994942 -0.036172677 -0.04699142 0.13197245 0.06647654 0.16250634 0.012516566 -0.085848965 0.03057905 0.039542634 0.027664252 -0.12705813 0.07505755 0.06525222
5 0.069565274 -0.108663276 0.04648938 0.0033342915 0.0052503482 -0.21930158 0.047200765 0.108966194 -0.009748535 0.032864414 0.1821922 -0.06982019 0.05788363 -0.064386174 0.22033556 -0.1266866 0.12636676 0.10388269 -0.05658188 -0.06398093 0.10771115 0.070560545 -0.046130855 0.07559231 -0.09723598 0.06506143 0.0020940448 0.054792076 0.13880047 -0.07666645 -0.3294556 0.07496961 0.122569405 0.025604459 -0.16428378 0.14034542 0.21748509 0.08656248 0.17260604 -0.089410596 0.007524889 0.14367658 -0.067796 -0.027419053 -0.028844975 -0.0064218827 -0.11828412 -0.12963438 0.11974641 0.1273896 0.061921585 -0.03497527 0.19806199 0.15018733 0.090330146 0.010602028 -0.047821492 -0.03702795 -0.16388471 0.08762593 0.11749054 -0.0025613892 0.00901331 -0.014784302 0.08403177 -0.084890455 -0.030729702 0.052572727 -0.023808256 -0.16097102 0.16894063 0.015097701 -0.15126267 -0.104998864 0.031830996 -0.051688995 -0.071404666 -0.09372905 -0.046976294 0.2124523 -0.005127782 -0.20392324 0.090278976 0.20680924 0.051116575 -0.0059597287 0.22067674 -0.21796417 0.13993682 0.05198065 -0.11761381 0.0032260683 -0.017113281 0.13510905 0.18900335 0.13485958 -0.23161034 -0.30344364 0.061484966 -0.1319798 -0.16130026 -0.050757423 0.13444728 -0.026385766 0.016851434 -0.09960485 0.04642223 -0.03339647 0.1168621 0.022422133 0.021192994 0.08616168 0.10758623 0.11487003 -0.097396895 -0.03250673 -0.0675026 0.13354425 0.07161604 0.1415927 -0.008891402 -0.102134146 0.025893196 0.023161473 0.024404854 -0.12183139 0.07239705 0.06384051
16 0.052496806 -0.055931974 -0.008072174 0.0023251502 0.031059729 -0.23409235 0.052182365 0.15538871 -0.046854343 0.068802014 0.2163323 0.010754984 -0.017039562 -0.07172783 0.23058438 -0.056274716 0.22977154 0.06661454 -0.109154955 0.018977024 0.054927185 0.111427486 0.05998838 0.11033985 -0.048815668 0.090707585 -0.0064504123 0.017797189 -0.0023525315 -0.12496637 -0.29989156 -0.057477273 0.1072145 0.05756023 -0.20567834 0.1156833 0.2199247 0.009708058 0.20332903 -0.043386098 -0.028592935 0.091607146 -0.0491892 -0.060460098 -0.0371584 0.014946411 -0.087257534 0.01651946 0.051440265 0.106064916 -0.036317755 0.00040303514 0.2719229 0.13455182 0.11632324 0.04755361 0.005161313 -0.03767312 -0.054466724 0.11698576 0.069599956 0.042693496 -0.04267058 0.030477637 0.104765 -0.070161045 0.035075102 0.05805934 -0.13250276 -0.16124922 0.19278297 -0.0049575283 -0.030388443 -0.15977275 -0.03346674 -0.026442153 -0.060045056 -0.05153496 -0.106864505 0.17497697 0.010394291 -0.11136174 0.011490371 0.20606828 -0.051196765 0.0058060037 0.15776499 -0.11207492 0.103096575 0.07294843 -0.08656123 -0.08150968 -0.004706538 0.0295589 0.117201336 0.07596221 -0.22495636 -0.20185573 0.12776409 -0.14527993 -0.15092413 -0.13069555 0.14912355 0.056203034 0.047092333 -0.12165339 0.07431589 0.025186174 0.09448902 -0.05990386 -0.031462956 0.09944195 0.08002312 0.081866376 -0.120803274 -0.052903593 -0.102090836 0.10758186 0.07467152 0.0938895 -0.08405624 -0.15488562 0.0242394 -3.3042452e-05 -0.030503308 -0.15276818 0.090570524 0.04031201
21 0.033868875 -0.044461876 -0.031464517 0.011469414 0.023120465 -0.23150969 0.0464819 0.14502561 -0.057519745 0.08513363 0.21800229 0.024115276 -0.02636239 -0.072374254 0.21782632 -0.040970046 0.23434584 0.05935066 -0.10118619 0.03453966 0.03716738 0.117541924 0.080200285 0.114423856 -0.03351022 0.088605106 -0.011226787 0.022084964 -0.03408624 -0.1392388 -0.28315604 -0.082513765 0.09912918 0.05771369 -0.19284002 0.1155964 0.211114 -0.010392235 0.19526903 -0.026052393 -0.031954903 0.08344015 -0.039055806 -0.06999077 -0.038746342 0.02544644 -0.078580044 0.043619864 0.047728386 0.114227 -0.037047792 0.011382483 0.2785485 0.11797667 0.11340825 0.057511996 0.0068598837 -0.04309717 -0.03700305 0.1366144 0.06428807 0.050497297 -0.0405581 0.03685503 0.108831435 -0.057873037 0.054352824 0.05074363 -0.13957001 -0.16044386 0.18668588 -0.019710673 -0.007532365 -0.16847827 -0.039229788 -0.032762118 -0.046687108 -0.044971023 -0.11311721 0.17266268 0.016589733 -0.08616169 -0.013763767 0.20207278 -0.065342516 0.010152851 0.15320979 -0.0922191 0.09479031 0.06987429 -0.07159335 -0.0977878 0.013329962 0.01485112 0.10799271 0.073097676 -0.2319085 -0.20128132 0.13832118 -0.14009787 -0.16034494 -0.14424516 0.16560784 0.07743821 0.057222817 -0.12795435 0.07984545 0.038332142 0.0845652 -0.075848274 -0.043186367 0.09509947 0.07866872 0.07110381 -0.12171403 -0.055474702 -0.09359637 0.099283285 0.0681954 0.0825223 -0.10314191 -0.15347181 0.010775169 -0.00614301 -0.031004772 -0.1620924 0.08697876 0.028801886
19 0.041895848 -0.04883038 -0.005359927 0.0044196625 0.011432561 -0.22638978 0.046263937 0.14030947 -0.050623924 0.071500964 0.21266119 0.028291248 -0.038137008 -0.085773304 0.21627346 -0.05140797 0.23465405 0.07193803 -0.104750544 0.020961137 0.04948348 0.12238526 0.08477909 0.11591865 -0.043268833 0.09179963 -0.019917889 0.01707855 -0.014893549 -0.14361566 -0.28741753 -0.066038996 0.09499588 0.04764615 -0.20369665 0.118732885 0.2392904 -0.0065281303 0.21631895 -0.034795944 -0.023429945 0.09796745 -0.041968547 -0.07658712 -0.03502848 0.023737986 -0.07925907 0.025324998 0.050842933 0.11333509 -0.02632407 -0.0058646277 0.29456246 0.13961868 0.12875755 0.065454036 -0.00096036354 -0.040901057 -0.056221645 0.13564214 0.0799219 0.0409151 -0.047405295 0.04669307 0.10681798 -0.067111924 0.050327923 0.05484088 -0.13375933 -0.16596785 0.19383073 -0.012909946 -0.019223992 -0.15806596 -0.042773865 -0.026105983 -0.054100048 -0.047650095 -0.09535069 0.17981577 0.024070876 -0.09625291 -0.003874191 0.20476079 -0.060323708 0.017989697 0.15822238 -0.09576943 0.10459253 0.07775959 -0.08043038 -0.08115834 0.011224177 0.014320789 0.12621671 0.07000093 -0.23081201 -0.20371644 0.1334895 -0.13885915 -0.16361326 -0.12551093 0.17048484 0.0740513 0.052697133 -0.12916885 0.083933644 0.031518243 0.08655238 -0.080820195 -0.035181306 0.08407739 0.07047926 0.086257696 -0.11651557 -0.05914486 -0.08800574 0.110382244 0.07283224 0.088202745 -0.09815229 -0.15515094 0.016256947 -0.013410439 -0.037215866 -0.16399029 0.08508211 0.02057497
15 0.046360243 -0.0646445 -0.015904859 0.0015237074 0.020361835 -0.22520591 0.041304003 0.14358693 -0.039987355 0.0651916 0.21736218 0.014056395 -0.023255683 -0.07627812 0.21675408 -0.055851948 0.21063752 0.06989447 -0.09491434 0.0015976783 0.04713709 0.1079541 0.05893415 0.107341416 -0.039459005 0.080051504 -0.0063995756 0.032306295 0.0062333243 -0.11776772 -0.29341838 -0.054305665 0.11139526 0.04210227 -0.18602261 0.11476279 0.21549815 0.005463377 0.2025971 -0.03835201 -0.019193614 0.08357051 -0.04721607 -0.06821893 -0.03431742 0.012335267 -0.0822927 0.0037587332 0.062160783 0.11576253 -0.024028473 -0.008059702 0.2630768 0.13729502 0.12230822 0.0463848 -0.003808757 -0.04232473 -0.0677308 0.1307239 0.07606444 0.04048628 -0.03272511 0.031122802 0.096535034 -0.063495226 0.039984178 0.061675522 -0.1292665 -0.15204419 0.18810397 -0.0114099905 -0.028460924 -0.15224113 -0.030571304 -0.040895954 -0.06311737 -0.050973196 -0.09554864 0.17400976 0.019333296 -0.119298495 0.00576385 0.21129945 -0.032439377 0.01856485 0.16759114 -0.11816592 0.10551878 0.07820563 -0.09110387 -0.06834236 0.008114023 0.039802473 0.13147357 0.08692959 -0.22143576 -0.21302257 0.12731302 -0.14307457 -0.1530001 -0.120119736 0.14940558 0.055724792 0.04266359 -0.12471453 0.077850394 0.025688004 0.08278167 -0.069578916 -0.028199175 0.09814297 0.07268186 0.09079305 -0.1063685 -0.05456221 -0.0919283 0.10185298 0.06543391 0.095105946 -0.08651616 -0.14350076 0.016493209 0.002835555 -0.018911133 -0.15183464 0.09276366 0.030056601
10 0.044882655 -0.06367418 0.017893292 -0.0034865262 0.0063567106 -0.22774075 0.041398086 0.12782693 -0.039193347 0.05893753 0.19862172 -0.014721382 -0.006567382 -0.07993728 0.20280895 -0.07712724 0.19260857 0.087617174 -0.08408211 -0.009050428 0.06142707 0.10029979 0.029027628 0.11290339 -0.061132394 0.0807781 -0.003920058 0.03946609 0.03899647 -0.119322784 -0.30153435 -0.017379418 0.095699124 0.037212346 -0.1805381 0.13457212 0.22868101 0.0295928 0.19840282 -0.052227456 -0.010933783 0.115865536 -0.04958159 -0.05098233 -0.03591481 0.017148051 -0.08238155 -0.037769582 0.067967184 0.10378583 0.013419736 -0.012161872 0.2545739 0.13228397 0.12291757 0.03369527 -0.008909068 -0.04280231 -0.091349915 0.10476771 0.10053865 0.026428089 -0.021890914 0.01622167 0.1006325 -0.07271291 0.011914879 0.05152521 -0.08999906 -0.16421996 0.18513292 -0.010777609 -0.07400873 -0.1362102 -0.018264292 -0.037739966 -0.061676364 -0.060913242 -0.08026004 0.18872963 0.0103410175 -0.13161248 0.038249843 0.18843882 -0.009441179 0.017761143 0.17298271 -0.14401722 0.10835549 0.07373934 -0.09266464 -0.03857648 0.007218978 0.06733613 0.14225541 0.0953813 -0.23211057 -0.24172081 0.113277644 -0.13654023 -0.15872318 -0.093855314 0.13962702 0.03135094 0.045196794 -0.11289895 0.052022703 0.0021808958 0.08718298 -0.04669307 -0.008488367 0.07877143 0.08512933 0.08888957 -0.09025221 -0.052704457 -0.07182378 0.10898197 0.060931988 0.09868981 -0.058522575 -0.12802263 0.0078009632 -0.00051526685 -0.014855875 -0.14991328 0.081482016 0.035235617
18 0.06266134 -0.08994553 0.043679334 -0.008308329 0.004710049 -0.21193136 0.043045074 0.111007 -0.018612038 0.0417623 0.16803457 -0.05021425 0.03575679 -0.073720686 0.21174215 -0.1147922 0.14498515 0.09907071 -0.0532616 -0.037629496 0.089235656 0.07262159 -0.031843595 0.098632365 -0.08420401 0.07885807 0.0024444447 0.06107555 0.11950218 -0.0871734 -0.31305593 0.047786806 0.10814152 0.032323916 -0.1632197 0.134352 0.2236082 0.067514844 0.18321137 -0.068199806 0.0035185465 0.13481958 -0.06949286 -0.019229004 -0.013333206 0.0024288718 -0.09348561 -0.0963307 0.091936834 0.1009818 0.041243162 -0.030996336 0.20567837 0.13885514 0.11030272 0.031639744 -0.03813703 -0.032239236 -0.13591564 0.08408899 0.10085635 0.002260021 0.009913449 0.012217921 0.09598615 -0.074262135 -0.011538415 0.03554663 -0.03869935 -0.16771056 0.17236272 0.0037490278 -0.13017175 -0.10607999 0.013645838 -0.041006926 -0.059923798 -0.08030196 -0.03817994 0.19603801 -0.010651108 -0.17916541 0.06747035 0.19290338 0.02434738 0.007401876 0.20144667 -0.19047542 0.13927893 0.06182046 -0.11053547 -0.0066879233 -0.0034953144 0.11534903 0.17678335 0.12216083 -0.23324531 -0.27382314 0.08305391 -0.1157889 -0.16217747 -0.05298448 0.12886322 -0.013120756 0.017713472 -0.086608365 0.03487325 -0.045372948 0.09690967 0.0060768425 0.014542759 0.07058583 0.086765505 0.09989624 -0.09370121 -0.033970006 -0.062308025 0.11360732 0.059241395 0.12918699 -0.025020046 -0.11711985 0.01347646 0.02304475 -0.0072873896 -0.13848141 0.066484965 0.051106535
27 0.03751786 -0.06493747 -0.007274037 0.0027043484 0.022325415 -0.22793561 0.046237286 0.14207588 -0.042236693 0.07174575 0.21134187 0.009965875 -0.016391046 -0.074814945 0.21411078 -0.06925729 0.2299798 0.08741668 -0.104794994 0.011977164 0.048165817 0.12323681 0.06792683 0.12027695 -0.03937689 0.097807124 -0.006097371 0.020269882 0.009838942 -0.13675204 -0.30878636 -0.04671739 0.10296735 0.05745726 -0.19645622 0.13086364 0.2371365 0.00087250664 0.2056605 -0.03661439 -0.028984196 0.10624744 -0.04386746 -0.071977824 -0.037938334 0.017421544 -0.09722845 0.0049450323 0.070942916 0.10794446 -0.020437045 0.006997227 0.29048052 0.14428027 0.11815699 0.05895877 -0.00797487 -0.040705215 -0.061085485 0.12450121 0.09017997 0.032320306 -0.03192179 0.037890356 0.110142715 -0.061047014 0.03947259 0.055994675 -0.123966806 -0.16702573 0.19505636 -0.02045296 -0.041040175 -0.15550414 -0.026270315 -0.037995663 -0.05834518 -0.050328348 -0.099641256 0.1865298 0.016832188 -0.11550147 0.0094923 0.21465814 -0.044172533 0.013093322 0.17199649 -0.11635561 0.104328156 0.085746124 -0.07719081 -0.06763334 0.0077160997 0.033690825 0.14086853 0.08584377 -0.24012662 -0.22281387 0.12777008 -0.14448321 -0.15664338 -0.12631555 0.15302585 0.061842654 0.056169692 -0.117753096 0.06431937 0.020957367 0.09032031 -0.063234314 -0.016744412 0.08928009 0.083932094 0.0912832 -0.11177941 -0.059881654 -0.089760534 0.10050712 0.06891672 0.09172061 -0.08719347 -0.14935602 0.019469513 -0.0032704622 -0.02787724 -0.16323832 0.08239981 0.032502312
17 0.08819357 -0.15046099 0.068094686 0.018504644 0.006828136 -0.18454336 0.06271385 0.09154487 0.0038683922 0.0070536546 0.15463506 -0.14682104 0.12318263 -0.04862215 0.2252537 -0.18236387 0.035122305 0.12157481 -0.04004182 -0.10829799 0.14458406 0.027312756 -0.14328174 0.06565541 -0.14219706 0.034560166 0.013362779 0.08150961 0.22861576 -0.018393882 -0.34380096 0.16897897 0.15969232 -0.01043473 -0.13968359 0.12892108 0.2067677 0.15902103 0.15254512 -0.1307182 0.0406608 0.17756344 -0.098138474 0.009972231 -0.028795684 -0.018772446 -0.13980016 -0.22161388 0.17609602 0.12416863 0.113720976 -0.043325234 0.14111885 0.15989687 0.052142773 -0.015349103 -0.07511805 -0.028431622 -0.22929727 0.06328688 0.1387146 -0.049204852 0.04938481 -0.037623268 0.055788316 -0.090918235 -0.09951458 0.049006224 0.04287236 -0.15994209 0.14462897 0.027055603 -0.22463734 -0.049844727 0.08121946 -0.068915695 -0.0837387 -0.13270588 -0.0016234594 0.24042152 -0.013266659 -0.27700132 0.14617299 0.20666808 0.117149636 -0.0044852826 0.26616552 -0.28239277 0.17428175 0.03668489 -0.14586389 0.07482912 -0.026631452 0.22266266 0.21771157 0.1691795 -0.22275782 -0.33547154 0.0047374587 -0.1238855 -0.16587208 -0.0022721048 0.09973402 -0.0976591 -0.024293127 -0.058715392 0.026652042 -0.06869507 0.13721149 0.08284818 0.078781016 0.088987604 0.12160308 0.12851319 -0.065125264 -0.026352936 -0.036867455 0.14296106 0.06536059 0.18127793 0.051207785 -0.07015966 0.048053186 0.048285946 0.050776526 -0.0860752 0.06943219 0.07103845
23 0.041039176 -0.051571593 -0.013735963 -0.0025726873 0.017880514 -0.2326018 0.046562564 0.13803996 -0.045222852 0.0770324 0.22394967 0.023685018 -0.023887308 -0.07894819 0.21260257 -0.04727445 0.22862688 0.07658688 -0.11131349 0.025842266 0.045666285 0.11973478 0.080192 0.117907874 -0.037288103 0.083146304 -0.011334515 0.022489674 -0.021775817 -0.12926023 -0.2897662 -0.07349864 0.104042135 0.05738147 -0.20557834 0.12197609 0.23563284 0.00226909 0.2138897 -0.02679829 -0.032463156 0.08406154 -0.034827393 -0.080631286 -0.044797 0.022165934 -0.080111496 0.019795919 0.053270552 0.11046009 -0.037106276 1.3912242e-05 0.27328688 0.13313705 0.11055554 0.06350914 0.0021971024 -0.054396905 -0.05228202 0.13662407 0.075841874 0.050366778 -0.050165948 0.02948462 0.10288248 -0.06253958 0.04512352 0.047567196 -0.1441188 -0.15937026 0.19470699 -0.02096127 -0.02265345 -0.16026652 -0.03784806 -0.038816128 -0.052823093 -0.046033077 -0.10431679 0.1824381 0.02126944 -0.09004146 0.003516856 0.20408472 -0.060852867 0.021524897 0.1458843 -0.10548651 0.09936906 0.07345764 -0.085232385 -0.085891716 0.00826697 0.024631731 0.12184512 0.07639448 -0.23612115 -0.20285381 0.13012885 -0.14580029 -0.16346538 -0.13271755 0.1614018 0.07298098 0.05008008 -0.124944486 0.08497202 0.026849123 0.08083082 -0.07912354 -0.03864446 0.099354975 0.079510994 0.08078364 -0.10020061 -0.06528898 -0.094198346 0.09217842 0.05895602 0.07392938 -0.08948435 -0.14824986 0.0050380174 0.0007893109 -0.030934762 -0.15194248 0.077524886 0.026306253
22 0.0545963 -0.08690199 0.03750478 -0.00056054833 0.0046648458 -0.20114838 0.04180272 0.11144116 -0.016003342 0.038370233 0.16404162 -0.05860536 0.037233576 -0.07187204 0.19847128 -0.11368838 0.13342708 0.10040968 -0.063930966 -0.045200516 0.0866447 0.074655876 -0.027756162 0.08401266 -0.08494837 0.069811806 0.003132049 0.05328393 0.101772964 -0.07680532 -0.30549687 0.042273697 0.10313172 0.020313503 -0.15826613 0.12426098 0.21031821 0.061420668 0.17160025 -0.07724124 0.012678205 0.13394623 -0.07142265 -0.021587128 -0.027723892 0.0037723128 -0.097070806 -0.10134457 0.091848545 0.09418706 0.049754485 -0.017419398 0.19783644 0.13734214 0.09909505 0.018600091 -0.027376303 -0.031362977 -0.12952805 0.0888654 0.09717078 -0.0019980227 0.011352702 0.004041579 0.077476494 -0.07326347 -0.019999307 0.040844984 -0.037568294 -0.14761353 0.1572506 0.0030785254 -0.12874463 -0.09326039 0.011940645 -0.049312193 -0.06077112 -0.07934149 -0.04530779 0.18971582 -0.0012512621 -0.17084257 0.078266956 0.1904464 0.031087527 0.004089016 0.20541953 -0.1781247 0.12951696 0.059142258 -0.11028771 -0.0036493351 -0.015672686 0.11366272 0.16804776 0.11089722 -0.22090264 -0.2622153 0.061951492 -0.11601317 -0.15057503 -0.0520502 0.1266295 -0.0020423785 0.030675324 -0.08846504 0.038121965 -0.04247431 0.096106306 0.0042000012 0.023271682 0.07396416 0.0810272 0.10453703 -0.08856397 -0.023097651 -0.057201307 0.10321909 0.060712505 0.12688844 -0.02571166 -0.10710048 0.028742444 0.021407891 0.012262907 -0.13587706 0.06656691 0.048657704
13 0.052939232 -0.09141636 0.027839135 -0.00095627486 -0.0068809628 -0.20171568 0.04041143 0.1030158 -0.011149622 0.030984173 0.16896667 -0.041118238 0.03188641 -0.07903606 0.19866836 -0.10909643 0.14857595 0.104071274 -0.062677704 -0.047221288 0.08735459 0.080215335 -0.020065963 0.08548679 -0.07842673 0.07912589 -0.0042803325 0.04758856 0.107077785 -0.095531054 -0.29973495 0.03271138 0.10178578 0.021501334 -0.16037753 0.14049876 0.21253225 0.055386204 0.17829978 -0.062051874 0.0012130481 0.13833499 -0.06682011 -0.034550738 -0.018726109 0.009271275 -0.09306347 -0.094398715 0.09067198 0.10189797 0.04283113 -0.028721696 0.22198643 0.15100382 0.11690395 0.029207781 -0.03739571 -0.043598354 -0.13639677 0.08657752 0.11889067 0.000642945 -0.006570394 0.016376415 0.09248368 -0.07347627 -0.006930285 0.04629646 -0.04892112 -0.16523641 0.15988804 -0.011094341 -0.12244841 -0.103050925 0.017089477 -0.037852164 -0.060522348 -0.06429599 -0.04477804 0.18749838 -0.0014119425 -0.16454755 0.069604605 0.18859899 0.03085899 0.010393368 0.19173267 -0.18420324 0.13400653 0.06195965 -0.11250929 0.0019085852 -0.011954618 0.11100919 0.17939925 0.11487381 -0.23016019 -0.27447122 0.07904303 -0.12521096 -0.16409647 -0.070048176 0.14646344 -0.009100246 0.032337423 -0.098764494 0.035643395 -0.03900456 0.10471429 -0.011165546 0.018621631 0.076916896 0.09552304 0.10989057 -0.08018687 -0.029936766 -0.070452906 0.10303504 0.0573949 0.123814315 -0.027681518 -0.10875892 0.017012924 0.019578002 -0.0036743665 -0.15042602 0.0791961 0.033816162
12 0.057935342 -0.0998081 0.042236622 -0.0007242699 0.0032570958 -0.21435179 0.051131517 0.10582482 -0.01204562 0.0381184 0.1801721 -0.058883175 0.038597565 -0.07717314 0.2102334 -0.12062321 0.13662165 0.09763812 -0.05586404 -0.05467931 0.088701 0.075147256 -0.035057303 0.09451863 -0.0838482 0.076419786 0.0026635823 0.055868786 0.109850064 -0.074593455 -0.31471896 0.05118742 0.116890356 0.02671407 -0.15596142 0.13821839 0.2205483 0.066723645 0.18286669 -0.073552996 0.011681516 0.14399877 -0.07363367 -0.024908107 -0.030768538 0.0032063967 -0.10950401 -0.094716735 0.10070532 0.102796815 0.048218697 -0.032489404 0.20147936 0.13740872 0.09712451 0.015471587 -0.044311758 -0.030685207 -0.14253528 0.09231483 0.10482324 -0.0026113677 0.00717762 -0.0042042118 0.08126304 -0.0809713 -0.02841268 0.03950919 -0.03921623 -0.15734892 0.15959653 -0.008247564 -0.12934346 -0.10374969 0.009554531 -0.050807912 -0.06045883 -0.08321788 -0.04824377 0.18577754 -0.0014432144 -0.18048692 0.07117345 0.20140095 0.03582988 0.00046377597 0.21153912 -0.19393678 0.13601883 0.06532046 -0.11154252 0.006605317 -0.010752039 0.12208465 0.18223284 0.11117831 -0.22868083 -0.27102888 0.06693716 -0.12293303 -0.1566482 -0.063156076 0.13095741 -0.009651769 0.026063807 -0.09656393 0.034426887 -0.030096514 0.10676077 0.0029416461 0.018963005 0.068531975 0.08599014 0.09046089 -0.08866267 -0.025913468 -0.058005378 0.109009914 0.046681613 0.1168798 -0.020886526 -0.10327015 0.019964559 0.02409664 -0.0009875405 -0.12270764 0.06962376 0.045789476
